digraph Tree {
node [shape=box] ;
0 [label="X[23] <= 1.0\ngini = 0.3609\nsamples = 399321\nvalue = [304954, 94367]"] ;
1 [label="X[0] <= 0.5\ngini = 0.3286\nsamples = 31666\nvalue = [6562, 25104]"] ;
0 -> 1 [labeldistance=2.5, labelangle=45, headlabel="True"] ;
2 [label="X[15] <= 27.5\ngini = 0.2261\nsamples = 24382\nvalue = [3168, 21214]"] ;
1 -> 2 ;
3 [label="X[15] <= 18.5\ngini = 0.1137\nsamples = 16128\nvalue = [976, 15152]"] ;
2 -> 3 ;
4 [label="gini = 0.2517\nsamples = 6205\nvalue = [916, 5289]"] ;
3 -> 4 ;
5 [label="X[15] <= 20.5\ngini = 0.012\nsamples = 9923\nvalue = [60, 9863]"] ;
3 -> 5 ;
6 [label="gini = 0.1026\nsamples = 461\nvalue = [25, 436]"] ;
5 -> 6 ;
7 [label="X[22] <= 25.0235\ngini = 0.0074\nsamples = 9462\nvalue = [35, 9427]"] ;
5 -> 7 ;
8 [label="X[15] <= 23.5\ngini = 0.0058\nsamples = 9294\nvalue = [27, 9267]"] ;
7 -> 8 ;
9 [label="X[2] <= 3.5\ngini = 0.005\nsamples = 9150\nvalue = [23, 9127]"] ;
8 -> 9 ;
10 [label="X[22] <= 14.9814\ngini = 0.0041\nsamples = 8804\nvalue = [18, 8786]"] ;
9 -> 10 ;
11 [label="X[8] <= 0.5\ngini = 0.0037\nsamples = 8686\nvalue = [16, 8670]"] ;
10 -> 11 ;
12 [label="gini = 0.0242\nsamples = 245\nvalue = [3, 242]"] ;
11 -> 12 ;
13 [label="X[3] <= 10.5\ngini = 0.0031\nsamples = 8441\nvalue = [13, 8428]"] ;
11 -> 13 ;
14 [label="gini = 0.0019\nsamples = 6250\nvalue = [6, 6244]"] ;
13 -> 14 ;
15 [label="gini = 0.0064\nsamples = 2191\nvalue = [7, 2184]"] ;
13 -> 15 ;
16 [label="gini = 0.0333\nsamples = 118\nvalue = [2, 116]"] ;
10 -> 16 ;
17 [label="gini = 0.0285\nsamples = 346\nvalue = [5, 341]"] ;
9 -> 17 ;
18 [label="gini = 0.054\nsamples = 144\nvalue = [4, 140]"] ;
8 -> 18 ;
19 [label="gini = 0.0907\nsamples = 168\nvalue = [8, 160]"] ;
7 -> 19 ;
20 [label="X[22] <= 14.9149\ngini = 0.3901\nsamples = 8254\nvalue = [2192, 6062]"] ;
2 -> 20 ;
21 [label="gini = 0.3699\nsamples = 7932\nvalue = [1943, 5989]"] ;
20 -> 21 ;
22 [label="gini = 0.3506\nsamples = 322\nvalue = [249, 73]"] ;
20 -> 22 ;
23 [label="gini = 0.4977\nsamples = 7284\nvalue = [3394, 3890]"] ;
1 -> 23 ;
24 [label="X[1] <= 77.0\ngini = 0.3058\nsamples = 367655\nvalue = [298392, 69263]"] ;
0 -> 24 [labeldistance=2.5, labelangle=-45, headlabel="False"] ;
25 [label="X[12] <= 0.5\ngini = 0.2796\nsamples = 333669\nvalue = [277612, 56057]"] ;
24 -> 25 ;
26 [label="X[1] <= 58.5\ngini = 0.3448\nsamples = 151344\nvalue = [117834, 33510]"] ;
25 -> 26 ;
27 [label="X[0] <= 0.5\ngini = 0.3612\nsamples = 129621\nvalue = [98962, 30659]"] ;
26 -> 27 ;
28 [label="X[15] <= 95.5\ngini = 0.381\nsamples = 98464\nvalue = [73246, 25218]"] ;
27 -> 28 ;
29 [label="X[1] <= 57.0\ngini = 0.3898\nsamples = 92957\nvalue = [68295, 24662]"] ;
28 -> 29 ;
30 [label="X[1] <= 52.0\ngini = 0.3869\nsamples = 91804\nvalue = [67730, 24074]"] ;
29 -> 30 ;
31 [label="X[15] <= 15.5\ngini = 0.3922\nsamples = 89351\nvalue = [65424, 23927]"] ;
30 -> 31 ;
32 [label="X[1] <= 12.5\ngini = 0.3277\nsamples = 19903\nvalue = [15793, 4110]"] ;
31 -> 32 ;
33 [label="X[1] <= 0.5\ngini = 0.3992\nsamples = 10681\nvalue = [7738, 2943]"] ;
32 -> 33 ;
34 [label="X[15] <= 11.5\ngini = 0.3624\nsamples = 10013\nvalue = [7633, 2380]"] ;
33 -> 34 ;
35 [label="gini = 0.4022\nsamples = 6319\nvalue = [4557, 1762]"] ;
34 -> 35 ;
36 [label="gini = 0.2786\nsamples = 3694\nvalue = [3076, 618]"] ;
34 -> 36 ;
37 [label="gini = 0.265\nsamples = 668\nvalue = [105, 563]"] ;
33 -> 37 ;
38 [label="X[1] <= 27.0\ngini = 0.2211\nsamples = 9222\nvalue = [8055, 1167]"] ;
32 -> 38 ;
39 [label="gini = 0.1135\nsamples = 5482\nvalue = [5151, 331]"] ;
38 -> 39 ;
40 [label="gini = 0.3471\nsamples = 3740\nvalue = [2904, 836]"] ;
38 -> 40 ;
41 [label="X[15] <= 27.5\ngini = 0.4079\nsamples = 69448\nvalue = [49631, 19817]"] ;
31 -> 41 ;
42 [label="gini = 0.4269\nsamples = 3319\nvalue = [1025, 2294]"] ;
41 -> 42 ;
43 [label="X[1] <= 4.5\ngini = 0.3895\nsamples = 66129\nvalue = [48606, 17523]"] ;
41 -> 43 ;
44 [label="X[1] <= 0.5\ngini = 0.3586\nsamples = 38946\nvalue = [29830, 9116]"] ;
43 -> 44 ;
45 [label="X[15] <= 82.5\ngini = 0.3874\nsamples = 32902\nvalue = [24259, 8643]"] ;
44 -> 45 ;
46 [label="X[21] <= 1.5\ngini = 0.3662\nsamples = 24748\nvalue = [18776, 5972]"] ;
45 -> 46 ;
47 [label="X[16] <= 40174.2188\ngini = 0.3484\nsamples = 20579\nvalue = [15956, 4623]"] ;
46 -> 47 ;
48 [label="gini = 0.2937\nsamples = 5015\nvalue = [4118, 897]"] ;
47 -> 48 ;
49 [label="X[9] <= 746.5\ngini = 0.3642\nsamples = 15564\nvalue = [11838, 3726]"] ;
47 -> 49 ;
50 [label="X[15] <= 31.0\ngini = 0.3486\nsamples = 11513\nvalue = [8924, 2589]"] ;
49 -> 50 ;
51 [label="gini = 0.2344\nsamples = 804\nvalue = [695, 109]"] ;
50 -> 51 ;
52 [label="X[15] <= 46.0\ngini = 0.3559\nsamples = 10709\nvalue = [8229, 2480]"] ;
50 -> 52 ;
53 [label="gini = 0.375\nsamples = 72\nvalue = [18, 54]"] ;
52 -> 53 ;
54 [label="X[19] <= 14962.5\ngini = 0.3521\nsamples = 10637\nvalue = [8211, 2426]"] ;
52 -> 54 ;
55 [label="gini = 0.3737\nsamples = 6280\nvalue = [4718, 1562]"] ;
54 -> 55 ;
56 [label="gini = 0.318\nsamples = 4357\nvalue = [3493, 864]"] ;
54 -> 56 ;
57 [label="gini = 0.4038\nsamples = 4051\nvalue = [2914, 1137]"] ;
49 -> 57 ;
58 [label="gini = 0.4378\nsamples = 4169\nvalue = [2820, 1349]"] ;
46 -> 58 ;
59 [label="X[15] <= 83.5\ngini = 0.4405\nsamples = 8154\nvalue = [5483, 2671]"] ;
45 -> 59 ;
60 [label="gini = 0.3239\nsamples = 182\nvalue = [37, 145]"] ;
59 -> 60 ;
61 [label="gini = 0.4329\nsamples = 7972\nvalue = [5446, 2526]"] ;
59 -> 61 ;
62 [label="gini = 0.1443\nsamples = 6044\nvalue = [5571, 473]"] ;
44 -> 62 ;
63 [label="X[15] <= 80.5\ngini = 0.4272\nsamples = 27183\nvalue = [18776, 8407]"] ;
43 -> 63 ;
64 [label="X[1] <= 15.5\ngini = 0.4956\nsamples = 10985\nvalue = [6008, 4977]"] ;
63 -> 64 ;
65 [label="gini = 0.3036\nsamples = 3628\nvalue = [2951, 677]"] ;
64 -> 65 ;
66 [label="gini = 0.4857\nsamples = 7357\nvalue = [3057, 4300]"] ;
64 -> 66 ;
67 [label="X[1] <= 18.0\ngini = 0.3338\nsamples = 16198\nvalue = [12768, 3430]"] ;
63 -> 67 ;
68 [label="gini = 0.3497\nsamples = 1430\nvalue = [323, 1107]"] ;
67 -> 68 ;
69 [label="X[1] <= 22.5\ngini = 0.2651\nsamples = 14768\nvalue = [12445, 2323]"] ;
67 -> 69 ;
70 [label="gini = 0.06\nsamples = 3976\nvalue = [3853, 123]"] ;
69 -> 70 ;
71 [label="X[15] <= 84.5\ngini = 0.3246\nsamples = 10792\nvalue = [8592, 2200]"] ;
69 -> 71 ;
72 [label="gini = 0.411\nsamples = 3141\nvalue = [2233, 908]"] ;
71 -> 72 ;
73 [label="gini = 0.2807\nsamples = 7651\nvalue = [6359, 1292]"] ;
71 -> 73 ;
74 [label="gini = 0.1127\nsamples = 2453\nvalue = [2306, 147]"] ;
30 -> 74 ;
75 [label="gini = 0.4998\nsamples = 1153\nvalue = [565, 588]"] ;
29 -> 75 ;
76 [label="gini = 0.1815\nsamples = 5507\nvalue = [4951, 556]"] ;
28 -> 76 ;
77 [label="X[15] <= 31.0\ngini = 0.2883\nsamples = 31157\nvalue = [25716, 5441]"] ;
27 -> 77 ;
78 [label="X[15] <= 0.5\ngini = 0.2054\nsamples = 10006\nvalue = [8843, 1163]"] ;
77 -> 78 ;
79 [label="gini = 0.1588\nsamples = 46\nvalue = [4, 42]"] ;
78 -> 79 ;
80 [label="X[1] <= 39.0\ngini = 0.1998\nsamples = 9960\nvalue = [8839, 1121]"] ;
78 -> 80 ;
81 [label="X[1] <= 12.5\ngini = 0.1911\nsamples = 9721\nvalue = [8681, 1040]"] ;
80 -> 81 ;
82 [label="gini = 0.2272\nsamples = 5572\nvalue = [4844, 728]"] ;
81 -> 82 ;
83 [label="gini = 0.1391\nsamples = 4149\nvalue = [3837, 312]"] ;
81 -> 83 ;
84 [label="gini = 0.4481\nsamples = 239\nvalue = [158, 81]"] ;
80 -> 84 ;
85 [label="X[6] <= 1.5\ngini = 0.3227\nsamples = 21151\nvalue = [16873, 4278]"] ;
77 -> 85 ;
86 [label="X[15] <= 85.5\ngini = 0.2648\nsamples = 12597\nvalue = [10618, 1979]"] ;
85 -> 86 ;
87 [label="X[1] <= 22.5\ngini = 0.3057\nsamples = 8369\nvalue = [6793, 1576]"] ;
86 -> 87 ;
88 [label="gini = 0.2591\nsamples = 6394\nvalue = [5416, 978]"] ;
87 -> 88 ;
89 [label="gini = 0.4222\nsamples = 1975\nvalue = [1377, 598]"] ;
87 -> 89 ;
90 [label="gini = 0.1725\nsamples = 4228\nvalue = [3825, 403]"] ;
86 -> 90 ;
91 [label="X[3] <= 15.5\ngini = 0.3931\nsamples = 8554\nvalue = [6255, 2299]"] ;
85 -> 91 ;
92 [label="gini = 0.4491\nsamples = 3146\nvalue = [2075, 1071]"] ;
91 -> 92 ;
93 [label="gini = 0.351\nsamples = 5408\nvalue = [4180, 1228]"] ;
91 -> 93 ;
94 [label="X[15] <= 80.5\ngini = 0.228\nsamples = 21723\nvalue = [18872, 2851]"] ;
26 -> 94 ;
95 [label="X[15] <= 5.5\ngini = 0.1932\nsamples = 20922\nvalue = [18655, 2267]"] ;
94 -> 95 ;
96 [label="gini = 0.2343\nsamples = 273\nvalue = [37, 236]"] ;
95 -> 96 ;
97 [label="X[1] <= 70.0\ngini = 0.1774\nsamples = 20649\nvalue = [18618, 2031]"] ;
95 -> 97 ;
98 [label="X[15] <= 76.0\ngini = 0.1011\nsamples = 11540\nvalue = [10924, 616]"] ;
97 -> 98 ;
99 [label="X[1] <= 66.5\ngini = 0.0815\nsamples = 11388\nvalue = [10903, 485]"] ;
98 -> 99 ;
100 [label="gini = 0.108\nsamples = 7842\nvalue = [7393, 449]"] ;
99 -> 100 ;
101 [label="gini = 0.0201\nsamples = 3546\nvalue = [3510, 36]"] ;
99 -> 101 ;
102 [label="gini = 0.2381\nsamples = 152\nvalue = [21, 131]"] ;
98 -> 102 ;
103 [label="X[15] <= 77.5\ngini = 0.2624\nsamples = 9109\nvalue = [7694, 1415]"] ;
97 -> 103 ;
104 [label="gini = 0.4307\nsamples = 4049\nvalue = [2778, 1271]"] ;
103 -> 104 ;
105 [label="gini = 0.0553\nsamples = 5060\nvalue = [4916, 144]"] ;
103 -> 105 ;
106 [label="gini = 0.395\nsamples = 801\nvalue = [217, 584]"] ;
94 -> 106 ;
107 [label="X[15] <= 0.5\ngini = 0.2167\nsamples = 182325\nvalue = [159778, 22547]"] ;
25 -> 107 ;
108 [label="gini = 0.2854\nsamples = 406\nvalue = [70, 336]"] ;
107 -> 108 ;
109 [label="X[15] <= 95.5\ngini = 0.2144\nsamples = 181919\nvalue = [159708, 22211]"] ;
107 -> 109 ;
110 [label="X[0] <= 0.5\ngini = 0.2295\nsamples = 160658\nvalue = [139415, 21243]"] ;
109 -> 110 ;
111 [label="X[1] <= 52.0\ngini = 0.2634\nsamples = 101274\nvalue = [85468, 15806]"] ;
110 -> 111 ;
112 [label="X[1] <= 34.5\ngini = 0.2818\nsamples = 83667\nvalue = [69468, 14199]"] ;
111 -> 112 ;
113 [label="X[1] <= 33.0\ngini = 0.2709\nsamples = 77556\nvalue = [65028, 12528]"] ;
112 -> 113 ;
114 [label="X[1] <= 27.0\ngini = 0.2819\nsamples = 73529\nvalue = [61043, 12486]"] ;
113 -> 114 ;
115 [label="X[1] <= 25.5\ngini = 0.2665\nsamples = 66908\nvalue = [56314, 10594]"] ;
114 -> 115 ;
116 [label="X[1] <= 15.5\ngini = 0.2821\nsamples = 61973\nvalue = [51441, 10532]"] ;
115 -> 116 ;
117 [label="X[15] <= 77.5\ngini = 0.2626\nsamples = 53458\nvalue = [45146, 8312]"] ;
116 -> 117 ;
118 [label="X[15] <= 26.5\ngini = 0.2274\nsamples = 41298\nvalue = [35895, 5403]"] ;
117 -> 118 ;
119 [label="X[15] <= 20.0\ngini = 0.3293\nsamples = 8160\nvalue = [6464, 1696]"] ;
118 -> 119 ;
120 [label="gini = 0.2849\nsamples = 7741\nvalue = [6409, 1332]"] ;
119 -> 120 ;
121 [label="gini = 0.2281\nsamples = 419\nvalue = [55, 364]"] ;
119 -> 121 ;
122 [label="X[1] <= 0.5\ngini = 0.1987\nsamples = 33138\nvalue = [29431, 3707]"] ;
118 -> 122 ;
123 [label="X[21] <= 1.5\ngini = 0.2462\nsamples = 20705\nvalue = [17728, 2977]"] ;
122 -> 123 ;
124 [label="X[3] <= 7.5\ngini = 0.2269\nsamples = 18083\nvalue = [15724, 2359]"] ;
123 -> 124 ;
125 [label="X[15] <= 31.0\ngini = 0.1924\nsamples = 9746\nvalue = [8695, 1051]"] ;
124 -> 125 ;
126 [label="gini = 0.089\nsamples = 1007\nvalue = [960, 47]"] ;
125 -> 126 ;
127 [label="X[15] <= 46.0\ngini = 0.2034\nsamples = 8739\nvalue = [7735, 1004]"] ;
125 -> 127 ;
128 [label="gini = 0.0783\nsamples = 49\nvalue = [2, 47]"] ;
127 -> 128 ;
129 [label="X[15] <= 76.5\ngini = 0.196\nsamples = 8690\nvalue = [7733, 957]"] ;
127 -> 129 ;
130 [label="gini = 0.2077\nsamples = 7237\nvalue = [6385, 852]"] ;
129 -> 130 ;
131 [label="gini = 0.1341\nsamples = 1453\nvalue = [1348, 105]"] ;
129 -> 131 ;
132 [label="X[6] <= 0.5\ngini = 0.2646\nsamples = 8337\nvalue = [7029, 1308]"] ;
124 -> 132 ;
133 [label="gini = 0.3361\nsamples = 2325\nvalue = [1828, 497]"] ;
132 -> 133 ;
134 [label="gini = 0.2334\nsamples = 6012\nvalue = [5201, 811]"] ;
132 -> 134 ;
135 [label="gini = 0.3603\nsamples = 2622\nvalue = [2004, 618]"] ;
123 -> 135 ;
136 [label="X[15] <= 73.5\ngini = 0.1105\nsamples = 12433\nvalue = [11703, 730]"] ;
122 -> 136 ;
137 [label="X[1] <= 13.5\ngini = 0.0905\nsamples = 11066\nvalue = [10540, 526]"] ;
136 -> 137 ;
138 [label="gini = 0.1322\nsamples = 6772\nvalue = [6290, 482]"] ;
137 -> 138 ;
139 [label="gini = 0.0203\nsamples = 4294\nvalue = [4250, 44]"] ;
137 -> 139 ;
140 [label="gini = 0.2539\nsamples = 1367\nvalue = [1163, 204]"] ;
136 -> 140 ;
141 [label="X[1] <= 3.0\ngini = 0.364\nsamples = 12160\nvalue = [9251, 2909]"] ;
117 -> 141 ;
142 [label="X[15] <= 80.5\ngini = 0.3366\nsamples = 11673\nvalue = [9173, 2500]"] ;
141 -> 142 ;
143 [label="gini = 0.4181\nsamples = 1972\nvalue = [1385, 587]"] ;
142 -> 143 ;
144 [label="X[6] <= 1.5\ngini = 0.3166\nsamples = 9701\nvalue = [7788, 1913]"] ;
142 -> 144 ;
145 [label="gini = 0.2972\nsamples = 7211\nvalue = [5902, 1309]"] ;
144 -> 145 ;
146 [label="gini = 0.3675\nsamples = 2490\nvalue = [1886, 604]"] ;
144 -> 146 ;
147 [label="gini = 0.269\nsamples = 487\nvalue = [78, 409]"] ;
141 -> 147 ;
148 [label="X[15] <= 80.5\ngini = 0.3855\nsamples = 8515\nvalue = [6295, 2220]"] ;
116 -> 148 ;
149 [label="gini = 0.4946\nsamples = 2706\nvalue = [1213, 1493]"] ;
148 -> 149 ;
150 [label="gini = 0.219\nsamples = 5809\nvalue = [5082, 727]"] ;
148 -> 150 ;
151 [label="gini = 0.0248\nsamples = 4935\nvalue = [4873, 62]"] ;
115 -> 151 ;
152 [label="gini = 0.4082\nsamples = 6621\nvalue = [4729, 1892]"] ;
114 -> 152 ;
153 [label="gini = 0.0206\nsamples = 4027\nvalue = [3985, 42]"] ;
113 -> 153 ;
154 [label="gini = 0.3973\nsamples = 6111\nvalue = [4440, 1671]"] ;
112 -> 154 ;
155 [label="X[15] <= 80.5\ngini = 0.1659\nsamples = 17607\nvalue = [16000, 1607]"] ;
111 -> 155 ;
156 [label="X[15] <= 5.5\ngini = 0.1464\nsamples = 17320\nvalue = [15943, 1377]"] ;
155 -> 156 ;
157 [label="gini = 0.2659\nsamples = 114\nvalue = [18, 96]"] ;
156 -> 157 ;
158 [label="X[15] <= 18.5\ngini = 0.1378\nsamples = 17206\nvalue = [15925, 1281]"] ;
156 -> 158 ;
159 [label="gini = 0.3684\nsamples = 961\nvalue = [727, 234]"] ;
158 -> 159 ;
160 [label="X[1] <= 70.0\ngini = 0.1206\nsamples = 16245\nvalue = [15198, 1047]"] ;
158 -> 160 ;
161 [label="X[15] <= 75.5\ngini = 0.082\nsamples = 13112\nvalue = [12550, 562]"] ;
160 -> 161 ;
162 [label="X[15] <= 55.0\ngini = 0.0649\nsamples = 12958\nvalue = [12523, 435]"] ;
161 -> 162 ;
163 [label="gini = 0.1093\nsamples = 3861\nvalue = [3637, 224]"] ;
162 -> 163 ;
164 [label="X[1] <= 61.5\ngini = 0.0453\nsamples = 9097\nvalue = [8886, 211]"] ;
162 -> 164 ;
165 [label="gini = 0.0277\nsamples = 6981\nvalue = [6883, 98]"] ;
164 -> 165 ;
166 [label="gini = 0.1011\nsamples = 2116\nvalue = [2003, 113]"] ;
164 -> 166 ;
167 [label="gini = 0.2892\nsamples = 154\nvalue = [27, 127]"] ;
161 -> 167 ;
168 [label="gini = 0.2617\nsamples = 3133\nvalue = [2648, 485]"] ;
160 -> 168 ;
169 [label="gini = 0.3183\nsamples = 287\nvalue = [57, 230]"] ;
155 -> 169 ;
170 [label="X[21] <= 1.5\ngini = 0.1663\nsamples = 59384\nvalue = [53947, 5437]"] ;
110 -> 170 ;
171 [label="X[6] <= 0.5\ngini = 0.154\nsamples = 51240\nvalue = [46931, 4309]"] ;
170 -> 171 ;
172 [label="X[3] <= 13.5\ngini = 0.0999\nsamples = 10184\nvalue = [9647, 537]"] ;
171 -> 172 ;
173 [label="gini = 0.0794\nsamples = 7031\nvalue = [6740, 291]"] ;
172 -> 173 ;
174 [label="gini = 0.1439\nsamples = 3153\nvalue = [2907, 246]"] ;
172 -> 174 ;
175 [label="X[1] <= 52.0\ngini = 0.1669\nsamples = 41056\nvalue = [37284, 3772]"] ;
171 -> 175 ;
176 [label="X[1] <= 34.5\ngini = 0.1789\nsamples = 32574\nvalue = [29339, 3235]"] ;
175 -> 176 ;
177 [label="X[1] <= 33.0\ngini = 0.1715\nsamples = 30663\nvalue = [27759, 2904]"] ;
176 -> 177 ;
178 [label="X[15] <= 80.5\ngini = 0.1772\nsamples = 29469\nvalue = [26573, 2896]"] ;
177 -> 178 ;
179 [label="X[1] <= 15.5\ngini = 0.1935\nsamples = 20855\nvalue = [18592, 2263]"] ;
178 -> 179 ;
180 [label="X[1] <= 0.5\ngini = 0.1581\nsamples = 17466\nvalue = [15954, 1512]"] ;
179 -> 180 ;
181 [label="X[23] <= 373366.0\ngini = 0.1834\nsamples = 11731\nvalue = [10533, 1198]"] ;
180 -> 181 ;
182 [label="X[15] <= 78.5\ngini = 0.1745\nsamples = 10633\nvalue = [9606, 1027]"] ;
181 -> 182 ;
183 [label="X[15] <= 5.5\ngini = 0.1694\nsamples = 10102\nvalue = [9158, 944]"] ;
182 -> 183 ;
184 [label="gini = 0.2806\nsamples = 314\nvalue = [261, 53]"] ;
183 -> 184 ;
185 [label="X[17] <= 8900.0\ngini = 0.1655\nsamples = 9788\nvalue = [8897, 891]"] ;
183 -> 185 ;
186 [label="gini = 0.4844\nsamples = 17\nvalue = [10, 7]"] ;
185 -> 186 ;
187 [label="X[9] <= 726.5\ngini = 0.1646\nsamples = 9771\nvalue = [8887, 884]"] ;
185 -> 187 ;
188 [label="gini = 0.1531\nsamples = 7281\nvalue = [6673, 608]"] ;
187 -> 188 ;
189 [label="gini = 0.1971\nsamples = 2490\nvalue = [2214, 276]"] ;
187 -> 189 ;
190 [label="gini = 0.2638\nsamples = 531\nvalue = [448, 83]"] ;
182 -> 190 ;
191 [label="gini = 0.263\nsamples = 1098\nvalue = [927, 171]"] ;
181 -> 191 ;
192 [label="gini = 0.1035\nsamples = 5735\nvalue = [5421, 314]"] ;
180 -> 192 ;
193 [label="gini = 0.345\nsamples = 3389\nvalue = [2638, 751]"] ;
179 -> 193 ;
194 [label="X[1] <= 31.5\ngini = 0.1362\nsamples = 8614\nvalue = [7981, 633]"] ;
178 -> 194 ;
195 [label="X[1] <= 18.0\ngini = 0.1334\nsamples = 8589\nvalue = [7972, 617]"] ;
194 -> 195 ;
196 [label="gini = 0.1878\nsamples = 4004\nvalue = [3584, 420]"] ;
195 -> 196 ;
197 [label="gini = 0.0822\nsamples = 4585\nvalue = [4388, 197]"] ;
195 -> 197 ;
198 [label="gini = 0.4608\nsamples = 25\nvalue = [9, 16]"] ;
194 -> 198 ;
199 [label="gini = 0.0133\nsamples = 1194\nvalue = [1186, 8]"] ;
177 -> 199 ;
200 [label="gini = 0.2864\nsamples = 1911\nvalue = [1580, 331]"] ;
176 -> 200 ;
201 [label="X[15] <= 80.5\ngini = 0.1186\nsamples = 8482\nvalue = [7945, 537]"] ;
175 -> 201 ;
202 [label="X[15] <= 18.5\ngini = 0.1087\nsamples = 8413\nvalue = [7928, 485]"] ;
201 -> 202 ;
203 [label="gini = 0.3569\nsamples = 486\nvalue = [373, 113]"] ;
202 -> 203 ;
204 [label="gini = 0.0895\nsamples = 7927\nvalue = [7555, 372]"] ;
202 -> 204 ;
205 [label="gini = 0.3714\nsamples = 69\nvalue = [17, 52]"] ;
201 -> 205 ;
206 [label="X[6] <= 0.5\ngini = 0.2386\nsamples = 8144\nvalue = [7016, 1128]"] ;
170 -> 206 ;
207 [label="gini = 0.1312\nsamples = 1119\nvalue = [1040, 79]"] ;
206 -> 207 ;
208 [label="gini = 0.2541\nsamples = 7025\nvalue = [5976, 1049]"] ;
206 -> 208 ;
209 [label="X[1] <= 34.5\ngini = 0.0869\nsamples = 21261\nvalue = [20293, 968]"] ;
109 -> 209 ;
210 [label="X[15] <= 96.5\ngini = 0.0699\nsamples = 20965\nvalue = [20205, 760]"] ;
209 -> 210 ;
211 [label="X[1] <= 27.0\ngini = 0.1014\nsamples = 14188\nvalue = [13428, 760]"] ;
210 -> 211 ;
212 [label="X[1] <= 6.0\ngini = 0.0953\nsamples = 14113\nvalue = [13405, 708]"] ;
211 -> 212 ;
213 [label="gini = 0.1648\nsamples = 5319\nvalue = [4837, 482]"] ;
212 -> 213 ;
214 [label="X[1] <= 11.5\ngini = 0.0501\nsamples = 8794\nvalue = [8568, 226]"] ;
212 -> 214 ;
215 [label="gini = 0.0042\nsamples = 6150\nvalue = [6137, 13]"] ;
214 -> 215 ;
216 [label="gini = 0.1481\nsamples = 2644\nvalue = [2431, 213]"] ;
214 -> 216 ;
217 [label="gini = 0.4252\nsamples = 75\nvalue = [23, 52]"] ;
211 -> 217 ;
218 [label="gini = 0.0\nsamples = 6777\nvalue = [6777, 0]"] ;
210 -> 218 ;
219 [label="gini = 0.4178\nsamples = 296\nvalue = [88, 208]"] ;
209 -> 219 ;
220 [label="X[1] <= 101.5\ngini = 0.4752\nsamples = 33986\nvalue = [20780, 13206]"] ;
24 -> 220 ;
221 [label="X[15] <= 18.5\ngini = 0.4964\nsamples = 27151\nvalue = [14727, 12424]"] ;
220 -> 221 ;
222 [label="X[1] <= 98.0\ngini = 0.4092\nsamples = 11615\nvalue = [8282, 3333]"] ;
221 -> 222 ;
223 [label="X[15] <= 1.5\ngini = 0.3652\nsamples = 10679\nvalue = [8112, 2567]"] ;
222 -> 223 ;
224 [label="gini = 0.321\nsamples = 458\nvalue = [92, 366]"] ;
223 -> 224 ;
225 [label="X[15] <= 16.5\ngini = 0.3379\nsamples = 10221\nvalue = [8020, 2201]"] ;
223 -> 225 ;
226 [label="X[1] <= 96.5\ngini = 0.3794\nsamples = 8308\nvalue = [6194, 2114]"] ;
225 -> 226 ;
227 [label="gini = 0.343\nsamples = 7826\nvalue = [6106, 1720]"] ;
226 -> 227 ;
228 [label="gini = 0.2985\nsamples = 482\nvalue = [88, 394]"] ;
226 -> 228 ;
229 [label="gini = 0.0868\nsamples = 1913\nvalue = [1826, 87]"] ;
225 -> 229 ;
230 [label="gini = 0.2973\nsamples = 936\nvalue = [170, 766]"] ;
222 -> 230 ;
231 [label="X[15] <= 89.5\ngini = 0.4855\nsamples = 15536\nvalue = [6445, 9091]"] ;
221 -> 231 ;
232 [label="X[0] <= 0.5\ngini = 0.3787\nsamples = 10271\nvalue = [2606, 7665]"] ;
231 -> 232 ;
233 [label="gini = 0.3058\nsamples = 7947\nvalue = [1497, 6450]"] ;
232 -> 233 ;
234 [label="gini = 0.499\nsamples = 2324\nvalue = [1109, 1215]"] ;
232 -> 234 ;
235 [label="gini = 0.395\nsamples = 5265\nvalue = [3839, 1426]"] ;
231 -> 235 ;
236 [label="gini = 0.2026\nsamples = 6835\nvalue = [6053, 782]"] ;
220 -> 236 ;
}